<?xml version="1.0"?>
<opencv_storage>
<myhaar type_id="opencv-haar-classifier">
  <size>
    24 24</size>
  <stages>
    <_>
      <trees>
        <_>
          <_>
            <feature>
              <rects>
                <_>
                  0 15 16 4 -1.</_>
                <_>
                  4 15 8 4 2.</_></rects>
              <tilted>0</tilted></feature>
            <threshold>0.0540368594229221</threshold>
            <left_val>-0.7198411226272583</left_val>
            <right_val>0.9077360033988953</right_val></_></_>
        <_>
          <_>
            <feature>
              <rects>
                <_>
                  12 17 2 5 -1.</_>
                <_>
                  12 17 1 5 2.</_></rects>
              <tilted>1</tilted></feature>
            <threshold>-8.1575550138950348e-003</threshold>
            <left_val>0.7670223712921143</left_val>
            <right_val>-0.0301719605922699</right_val></_></_>
        <_>
          <_>
            <feature>
              <rects>
                <_>
                  12 17 5 2 -1.</_>
                <_>
                  12 17 5 1 2.</_></rects>
              <tilted>1</tilted></feature>
            <threshold>-1.6229009488597512e-003</threshold>
            <left_val>0.5184230804443359</left_val>
            <right_val>-0.9621130824089050</right_val></_></_></trees>
      <stage_threshold>-0.9149317741394043</stage_threshold>
      <parent>-1</parent>
      <next>-1</next></_>
    <_>
      <trees>
        <_>
          <_>
            <feature>
              <rects>
                <_>
                  0 10 16 13 -1.</_>
                <_>
                  4 10 8 13 2.</_></rects>
              <tilted>0</tilted></feature>
            <threshold>0.1869570016860962</threshold>
            <left_val>-0.6849182844161987</left_val>
            <right_val>0.9089949727058411</right_val></_></_>
        <_>
          <_>
            <feature>
              <rects>
                <_>
                  11 10 2 1 -1.</_>
                <_>
                  11 10 1 1 2.</_></rects>
              <tilted>0</tilted></feature>
            <threshold>1.2229339336045086e-004</threshold>
            <left_val>-0.9537360072135925</left_val>
            <right_val>0.5752518773078919</right_val></_></_></trees>
      <stage_threshold>-0.1096664965152741</stage_threshold>
      <parent>0</parent>
      <next>-1</next></_>
    <_>
      <trees>
        <_>
          <_>
            <feature>
              <rects>
                <_>
                  4 13 16 9 -1.</_>
                <_>
                  12 13 8 9 2.</_></rects>
              <tilted>0</tilted></feature>
            <threshold>-0.2389868944883347</threshold>
            <left_val>0.8726108074188232</left_val>
            <right_val>-0.5829852819442749</right_val></_></_>
        <_>
          <_>
            <feature>
              <rects>
                <_>
                  12 0 12 2 -1.</_>
                <_>
                  12 0 6 2 2.</_></rects>
              <tilted>0</tilted></feature>
            <threshold>2.0670830272138119e-003</threshold>
            <left_val>0.4348480105400085</left_val>
            <right_val>-0.5504301190376282</right_val></_></_>
        <_>
          <_>
            <feature>
              <rects>
                <_>
                  0 0 10 5 -1.</_>
                <_>
                  5 0 5 5 2.</_></rects>
              <tilted>0</tilted></feature>
            <threshold>-1.1861739913001657e-003</threshold>
            <left_val>-0.9884824752807617</left_val>
            <right_val>0.4105550050735474</right_val></_></_></trees>
      <stage_threshold>-0.7228605151176453</stage_threshold>
      <parent>1</parent>
      <next>-1</next></_>
    <_>
      <trees>
        <_>
          <_>
            <feature>
              <rects>
                <_>
                  5 14 10 10 -1.</_>
                <_>
                  10 14 5 10 2.</_></rects>
              <tilted>0</tilted></feature>
            <threshold>-0.1414604038000107</threshold>
            <left_val>0.8840895295143127</left_val>
            <right_val>-0.5452873110771179</right_val></_></_>
        <_>
          <_>
            <feature>
              <rects>
                <_>
                  4 0 18 1 -1.</_>
                <_>
                  10 0 6 1 3.</_></rects>
              <tilted>0</tilted></feature>
            <threshold>1.5385720180347562e-003</threshold>
            <left_val>0.3447284102439880</left_val>
            <right_val>-0.8002235889434815</right_val></_></_>
        <_>
          <_>
            <feature>
              <rects>
                <_>
                  11 22 2 2 -1.</_>
                <_>
                  12 22 1 2 2.</_></rects>
              <tilted>0</tilted></feature>
            <threshold>-2.7330461307428777e-004</threshold>
            <left_val>0.3263675868511200</left_val>
            <right_val>-0.9999852776527405</right_val></_></_></trees>
      <stage_threshold>-1.0191429853439331</stage_threshold>
      <parent>2</parent>
      <next>-1</next></_>
    <_>
      <trees>
        <_>
          <_>
            <feature>
              <rects>
                <_>
                  11 9 1 4 -1.</_>
                <_>
                  11 9 1 2 2.</_></rects>
              <tilted>1</tilted></feature>
            <threshold>-4.1490821167826653e-003</threshold>
            <left_val>0.6815363168716431</left_val>
            <right_val>-0.5914313793182373</right_val></_></_>
        <_>
          <_>
            <feature>
              <rects>
                <_>
                  23 0 1 18 -1.</_>
                <_>
                  23 9 1 9 2.</_></rects>
              <tilted>0</tilted></feature>
            <threshold>2.2464341018348932e-003</threshold>
            <left_val>0.1860188990831375</left_val>
            <right_val>-0.8043596148490906</right_val></_></_>
        <_>
          <_>
            <feature>
              <rects>
                <_>
                  0 0 1 18 -1.</_>
                <_>
                  0 9 1 9 2.</_></rects>
              <tilted>0</tilted></feature>
            <threshold>1.1685029603540897e-003</threshold>
            <left_val>0.3789615035057068</left_val>
            <right_val>-0.9999800920486450</right_val></_></_>
        <_>
          <_>
            <feature>
              <rects>
                <_>
                  0 0 24 14 -1.</_>
                <_>
                  0 7 24 7 2.</_></rects>
              <tilted>0</tilted></feature>
            <threshold>-0.0295310392975807</threshold>
            <left_val>-1.</left_val>
            <right_val>0.3189809918403626</right_val></_></_></trees>
      <stage_threshold>-0.6978484988212585</stage_threshold>
      <parent>3</parent>
      <next>-1</next></_>
    <_>
      <trees>
        <_>
          <_>
            <feature>
              <rects>
                <_>
                  2 0 20 1 -1.</_>
                <_>
                  12 0 10 1 2.</_></rects>
              <tilted>0</tilted></feature>
            <threshold>-1.4259490417316556e-003</threshold>
            <left_val>-0.8293657898902893</left_val>
            <right_val>0.4793762862682343</right_val></_></_>
        <_>
          <_>
            <feature>
              <rects>
                <_>
                  22 0 2 16 -1.</_>
                <_>
                  23 0 1 8 2.</_>
                <_>
                  22 8 1 8 2.</_></rects>
              <tilted>0</tilted></feature>
            <threshold>7.5941538671031594e-004</threshold>
            <left_val>0.0729631334543228</left_val>
            <right_val>-0.5552139282226563</right_val></_></_>
        <_>
          <_>
            <feature>
              <rects>
                <_>
                  0 0 20 1 -1.</_>
                <_>
                  10 0 10 1 2.</_></rects>
              <tilted>0</tilted></feature>
            <threshold>2.2190269082784653e-003</threshold>
            <left_val>0.3491289913654327</left_val>
            <right_val>-1.0000050067901611</right_val></_></_>
        <_>
          <_>
            <feature>
              <rects>
                <_>
                  10 0 9 12 -1.</_>
                <_>
                  10 4 9 4 3.</_></rects>
              <tilted>0</tilted></feature>
            <threshold>0.0303587801754475</threshold>
            <left_val>-0.3071488142013550</left_val>
            <right_val>0.7269377708435059</right_val></_></_></trees>
      <stage_threshold>-0.7144225835800171</stage_threshold>
      <parent>4</parent>
      <next>-1</next></_>
    <_>
      <trees>
        <_>
          <_>
            <feature>
              <rects>
                <_>
                  0 0 22 1 -1.</_>
                <_>
                  11 0 11 1 2.</_></rects>
              <tilted>0</tilted></feature>
            <threshold>-1.8691109726205468e-003</threshold>
            <left_val>-0.8577638268470764</left_val>
            <right_val>0.5358163714408875</right_val></_></_>
        <_>
          <_>
            <feature>
              <rects>
                <_>
                  4 5 20 14 -1.</_>
                <_>
                  9 5 10 14 2.</_></rects>
              <tilted>0</tilted></feature>
            <threshold>-0.3219901025295258</threshold>
            <left_val>0.7000914812088013</left_val>
            <right_val>-0.2183786034584045</right_val></_></_>
        <_>
          <_>
            <feature>
              <rects>
                <_>
                  0 5 20 14 -1.</_>
                <_>
                  5 5 10 14 2.</_></rects>
              <tilted>0</tilted></feature>
            <threshold>0.2683273851871491</threshold>
            <left_val>-0.4214338064193726</left_val>
            <right_val>0.7843503952026367</right_val></_></_>
        <_>
          <_>
            <feature>
              <rects>
                <_>
                  23 13 1 10 -1.</_>
                <_>
                  23 18 1 5 2.</_></rects>
              <tilted>0</tilted></feature>
            <threshold>3.4371290821582079e-003</threshold>
            <left_val>0.1771871000528336</left_val>
            <right_val>-0.8658754825592041</right_val></_></_>
        <_>
          <_>
            <feature>
              <rects>
                <_>
                  0 9 2 6 -1.</_>
                <_>
                  1 9 1 6 2.</_></rects>
              <tilted>0</tilted></feature>
            <threshold>4.4497239287011325e-004</threshold>
            <left_val>0.2780573964118958</left_val>
            <right_val>-0.8894221186637878</right_val></_></_>
        <_>
          <_>
            <feature>
              <rects>
                <_>
                  13 0 8 6 -1.</_>
                <_>
                  11 2 8 2 3.</_></rects>
              <tilted>1</tilted></feature>
            <threshold>-0.0157288201153278</threshold>
            <left_val>0.4564329981803894</left_val>
            <right_val>-0.3473691046237946</right_val></_></_>
        <_>
          <_>
            <feature>
              <rects>
                <_>
                  1 2 12 15 -1.</_>
                <_>
                  5 7 4 5 9.</_></rects>
              <tilted>0</tilted></feature>
            <threshold>-0.0549747906625271</threshold>
            <left_val>0.6659430861473084</left_val>
            <right_val>-0.4584865868091583</right_val></_></_></trees>
      <stage_threshold>-0.7237576842308044</stage_threshold>
      <parent>5</parent>
      <next>-1</next></_>
    <_>
      <trees>
        <_>
          <_>
            <feature>
              <rects>
                <_>
                  12 9 12 1 -1.</_>
                <_>
                  15 12 6 1 2.</_></rects>
              <tilted>1</tilted></feature>
            <threshold>-4.1364119388163090e-003</threshold>
            <left_val>0.4743213951587677</left_val>
            <right_val>-0.7567030191421509</right_val></_></_>
        <_>
          <_>
            <feature>
              <rects>
                <_>
                  11 2 12 6 -1.</_>
                <_>
                  11 4 12 2 3.</_></rects>
              <tilted>0</tilted></feature>
            <threshold>-8.5558835417032242e-003</threshold>
            <left_val>-0.9139969944953919</left_val>
            <right_val>0.0203471295535564</right_val></_></_>
        <_>
          <_>
            <feature>
              <rects>
                <_>
                  1 2 12 6 -1.</_>
                <_>
                  1 4 12 2 3.</_></rects>
              <tilted>0</tilted></feature>
            <threshold>4.1424640221521258e-004</threshold>
            <left_val>-0.7314587831497192</left_val>
            <right_val>0.3871389031410217</right_val></_></_>
        <_>
          <_>
            <feature>
              <rects>
                <_>
                  23 14 1 10 -1.</_>
                <_>
                  23 19 1 5 2.</_></rects>
              <tilted>0</tilted></feature>
            <threshold>-3.8716460112482309e-003</threshold>
            <left_val>-0.8858647942543030</left_val>
            <right_val>0.1014856994152069</right_val></_></_>
        <_>
          <_>
            <feature>
              <rects>
                <_>
                  0 15 1 8 -1.</_>
                <_>
                  0 19 1 4 2.</_></rects>
              <tilted>0</tilted></feature>
            <threshold>4.2632149416022003e-004</threshold>
            <left_val>0.2900693118572235</left_val>
            <right_val>-0.9362475872039795</right_val></_></_>
        <_>
          <_>
            <feature>
              <rects>
                <_>
                  9 23 10 1 -1.</_>
                <_>
                  9 23 5 1 2.</_></rects>
              <tilted>0</tilted></feature>
            <threshold>4.3463571928441525e-003</threshold>
            <left_val>-0.5467159748077393</left_val>
            <right_val>0.0860349088907242</right_val></_></_>
        <_>
          <_>
            <feature>
              <rects>
                <_>
                  2 15 3 9 -1.</_>
                <_>
                  3 15 1 9 3.</_></rects>
              <tilted>0</tilted></feature>
            <threshold>-0.0218286905437708</threshold>
            <left_val>0.8608340024948120</left_val>
            <right_val>-0.3093833923339844</right_val></_></_></trees>
      <stage_threshold>-0.4654614031314850</stage_threshold>
      <parent>6</parent>
      <next>-1</next></_>
    <_>
      <trees>
        <_>
          <_>
            <feature>
              <rects>
                <_>
                  8 22 2 1 -1.</_>
                <_>
                  9 22 1 1 2.</_></rects>
              <tilted>0</tilted></feature>
            <threshold>-9.5520852482877672e-005</threshold>
            <left_val>0.3789434134960175</left_val>
            <right_val>-0.7265216112136841</right_val></_></_>
        <_>
          <_>
            <feature>
              <rects>
                <_>
                  14 20 4 4 -1.</_>
                <_>
                  15 20 2 4 2.</_></rects>
              <tilted>0</tilted></feature>
            <threshold>-1.0699259582906961e-003</threshold>
            <left_val>-0.6233037114143372</left_val>
            <right_val>0.1734595000743866</right_val></_></_>
        <_>
          <_>
            <feature>
              <rects>
                <_>
                  0 0 4 4 -1.</_>
                <_>
                  1 0 2 4 2.</_></rects>
              <tilted>0</tilted></feature>
            <threshold>-3.3448429894633591e-004</threshold>
            <left_val>-0.8940231204032898</left_val>
            <right_val>0.2896949946880341</right_val></_></_>
        <_>
          <_>
            <feature>
              <rects>
                <_>
                  2 17 20 4 -1.</_>
                <_>
                  2 18 20 2 2.</_></rects>
              <tilted>0</tilted></feature>
            <threshold>1.9273760262876749e-003</threshold>
            <left_val>0.1865925937891007</left_val>
            <right_val>-0.9490715265274048</right_val></_></_>
        <_>
          <_>
            <feature>
              <rects>
                <_>
                  6 1 8 4 -1.</_>
                <_>
                  6 2 8 2 2.</_></rects>
              <tilted>0</tilted></feature>
            <threshold>-3.9736367762088776e-003</threshold>
            <left_val>0.8263837099075317</left_val>
            <right_val>-0.3512785136699677</right_val></_></_>
        <_>
          <_>
            <feature>
              <rects>
                <_>
                  17 6 1 6 -1.</_>
                <_>
                  17 9 1 3 2.</_></rects>
              <tilted>0</tilted></feature>
            <threshold>1.7850480508059263e-003</threshold>
            <left_val>0.1160205975174904</left_val>
            <right_val>-0.8135011196136475</right_val></_></_>
        <_>
          <_>
            <feature>
              <rects>
                <_>
                  6 6 1 6 -1.</_>
                <_>
                  6 9 1 3 2.</_></rects>
              <tilted>0</tilted></feature>
            <threshold>-3.6838810046901926e-005</threshold>
            <left_val>0.4951548874378204</left_val>
            <right_val>-0.4933339953422546</right_val></_></_></trees>
      <stage_threshold>-0.8053663969039917</stage_threshold>
      <parent>7</parent>
      <next>-1</next></_>
    <_>
      <trees>
        <_>
          <_>
            <feature>
              <rects>
                <_>
                  0 17 23 4 -1.</_>
                <_>
                  0 18 23 2 2.</_></rects>
              <tilted>0</tilted></feature>
            <threshold>-1.2584769865497947e-003</threshold>
            <left_val>-0.8628587126731873</left_val>
            <right_val>0.3436669111251831</right_val></_></_>
        <_>
          <_>
            <feature>
              <rects>
                <_>
                  13 12 9 12 -1.</_>
                <_>
                  16 12 3 12 3.</_></rects>
              <tilted>0</tilted></feature>
            <threshold>-1.4162519946694374e-003</threshold>
            <left_val>0.0482435114681721</left_val>
            <right_val>-0.7080277800559998</right_val></_></_>
        <_>
          <_>
            <feature>
              <rects>
                <_>
                  0 0 8 9 -1.</_>
                <_>
                  4 0 4 9 2.</_></rects>
              <tilted>0</tilted></feature>
            <threshold>-1.7581169959157705e-003</threshold>
            <left_val>-0.9686238169670105</left_val>
            <right_val>0.2708298861980438</right_val></_></_>
        <_>
          <_>
            <feature>
              <rects>
                <_>
                  13 2 10 21 -1.</_>
                <_>
                  13 9 10 7 3.</_></rects>
              <tilted>0</tilted></feature>
            <threshold>-0.0585201382637024</threshold>
            <left_val>-0.6785671114921570</left_val>
            <right_val>-7.5663701863959432e-004</right_val></_></_>
        <_>
          <_>
            <feature>
              <rects>
                <_>
                  1 2 10 21 -1.</_>
                <_>
                  1 9 10 7 3.</_></rects>
              <tilted>0</tilted></feature>
            <threshold>6.8786321207880974e-003</threshold>
            <left_val>-0.6089441180229187</left_val>
            <right_val>0.4679369926452637</right_val></_></_>
        <_>
          <_>
            <feature>
              <rects>
                <_>
                  21 0 3 16 -1.</_>
                <_>
                  21 4 3 8 2.</_></rects>
              <tilted>0</tilted></feature>
            <threshold>4.8090009950101376e-003</threshold>
            <left_val>0.1388556063175201</left_val>
            <right_val>-0.7869665026664734</right_val></_></_>
        <_>
          <_>
            <feature>
              <rects>
                <_>
                  3 1 14 2 -1.</_>
                <_>
                  10 1 7 2 2.</_></rects>
              <tilted>0</tilted></feature>
            <threshold>2.8817699057981372e-004</threshold>
            <left_val>-0.5494375228881836</left_val>
            <right_val>0.4787535071372986</right_val></_></_>
        <_>
          <_>
            <feature>
              <rects>
                <_>
                  15 2 2 8 -1.</_>
                <_>
                  15 2 1 8 2.</_></rects>
              <tilted>0</tilted></feature>
            <threshold>-4.1079642251133919e-003</threshold>
            <left_val>-1.</left_val>
            <right_val>0.0182005707174540</right_val></_></_></trees>
      <stage_threshold>-1.2739479541778564</stage_threshold>
      <parent>8</parent>
      <next>-1</next></_></stages></myhaar>
</opencv_storage>
